digraph Tree {
node [shape=box] ;
0 [label="Sex <= 0.5\ngini = 0.483\nsamples = 471\nvalue = [279, 192]"] ;
1 [label="Pclass <= 2.5\ngini = 0.389\nsamples = 170\nvalue = [45, 125]"] ;
0 -> 1 [labeldistance=2.5, labelangle=45, headlabel="True"] ;
2 [label="Age <= 2.5\ngini = 0.1\nsamples = 95\nvalue = [5, 90]"] ;
1 -> 2 ;
3 [label="gini = 0.5\nsamples = 2\nvalue = [1, 1]"] ;
2 -> 3 ;
4 [label="Age <= 24.5\ngini = 0.082\nsamples = 93\nvalue = [4, 89]"] ;
2 -> 4 ;
5 [label="gini = 0.0\nsamples = 35\nvalue = [0, 35]"] ;
4 -> 5 ;
6 [label="Age <= 27.5\ngini = 0.128\nsamples = 58\nvalue = [4, 54]"] ;
4 -> 6 ;
7 [label="gini = 0.469\nsamples = 8\nvalue = [3, 5]"] ;
6 -> 7 ;
8 [label="Age <= 49.5\ngini = 0.039\nsamples = 50\nvalue = [1, 49]"] ;
6 -> 8 ;
9 [label="gini = 0.0\nsamples = 41\nvalue = [0, 41]"] ;
8 -> 9 ;
10 [label="gini = 0.198\nsamples = 9\nvalue = [1, 8]"] ;
8 -> 10 ;
11 [label="Fare <= 23.087\ngini = 0.498\nsamples = 75\nvalue = [40, 35]"] ;
1 -> 11 ;
12 [label="Fare <= 15.621\ngini = 0.495\nsamples = 62\nvalue = [28, 34]"] ;
11 -> 12 ;
13 [label="Fare <= 13.908\ngini = 0.499\nsamples = 48\nvalue = [25, 23]"] ;
12 -> 13 ;
14 [label="gini = 0.495\nsamples = 40\nvalue = [18, 22]"] ;
13 -> 14 ;
15 [label="gini = 0.219\nsamples = 8\nvalue = [7, 1]"] ;
13 -> 15 ;
16 [label="gini = 0.337\nsamples = 14\nvalue = [3, 11]"] ;
12 -> 16 ;
17 [label="gini = 0.142\nsamples = 13\nvalue = [12, 1]"] ;
11 -> 17 ;
18 [label="Pclass <= 1.5\ngini = 0.346\nsamples = 301\nvalue = [234, 67]"] ;
0 -> 18 [labeldistance=2.5, labelangle=-45, headlabel="False"] ;
19 [label="Age <= 53.0\ngini = 0.493\nsamples = 70\nvalue = [39, 31]"] ;
18 -> 19 ;
20 [label="Fare <= 27.135\ngini = 0.5\nsamples = 55\nvalue = [27, 28]"] ;
19 -> 20 ;
21 [label="gini = 0.32\nsamples = 10\nvalue = [2, 8]"] ;
20 -> 21 ;
22 [label="gini = 0.494\nsamples = 45\nvalue = [25, 20]"] ;
20 -> 22 ;
23 [label="gini = 0.32\nsamples = 15\nvalue = [12, 3]"] ;
19 -> 23 ;
24 [label="Age <= 1.5\ngini = 0.263\nsamples = 231\nvalue = [195, 36]"] ;
18 -> 24 ;
25 [label="gini = 0.245\nsamples = 7\nvalue = [1, 6]"] ;
24 -> 25 ;
26 [label="Age <= 13.0\ngini = 0.232\nsamples = 224\nvalue = [194, 30]"] ;
24 -> 26 ;
27 [label="gini = 0.465\nsamples = 19\nvalue = [12, 7]"] ;
26 -> 27 ;
28 [label="Pclass <= 2.5\ngini = 0.199\nsamples = 205\nvalue = [182, 23]"] ;
26 -> 28 ;
29 [label="Age <= 20.0\ngini = 0.095\nsamples = 60\nvalue = [57, 3]"] ;
28 -> 29 ;
30 [label="gini = 0.32\nsamples = 5\nvalue = [4, 1]"] ;
29 -> 30 ;
31 [label="Age <= 30.5\ngini = 0.07\nsamples = 55\nvalue = [53, 2]"] ;
29 -> 31 ;
32 [label="gini = 0.0\nsamples = 26\nvalue = [26, 0]"] ;
31 -> 32 ;
33 [label="gini = 0.128\nsamples = 29\nvalue = [27, 2]"] ;
31 -> 33 ;
34 [label="Fare <= 48.092\ngini = 0.238\nsamples = 145\nvalue = [125, 20]"] ;
28 -> 34 ;
35 [label="Embarked <= 0.5\ngini = 0.229\nsamples = 144\nvalue = [125, 19]"] ;
34 -> 35 ;
36 [label="gini = 0.408\nsamples = 14\nvalue = [10, 4]"] ;
35 -> 36 ;
37 [label="Age <= 23.5\ngini = 0.204\nsamples = 130\nvalue = [115, 15]"] ;
35 -> 37 ;
38 [label="Age <= 19.5\ngini = 0.109\nsamples = 52\nvalue = [49, 3]"] ;
37 -> 38 ;
39 [label="gini = 0.198\nsamples = 27\nvalue = [24, 3]"] ;
38 -> 39 ;
40 [label="gini = 0.0\nsamples = 25\nvalue = [25, 0]"] ;
38 -> 40 ;
41 [label="Age <= 32.5\ngini = 0.26\nsamples = 78\nvalue = [66, 12]"] ;
37 -> 41 ;
42 [label="gini = 0.337\nsamples = 42\nvalue = [33, 9]"] ;
41 -> 42 ;
43 [label="gini = 0.153\nsamples = 36\nvalue = [33, 3]"] ;
41 -> 43 ;
44 [label="gini = 0.0\nsamples = 1\nvalue = [0, 1]"] ;
34 -> 44 ;
}